{"version": 1, "label_bot": 1, "label_human": 0, "feature_names": ["mean_velocity", "mean_jitter", "straightness", "mean_acceleration", "velocity_variance", "acceleration_variance", "mean_jerk", "pause_ratio"], "scaler": {"mean": [0.3013726220021413, 0.06731698919569266, 10.522023826268569, -0.04878769266754763, 2.0187880687148776, 3.3810757568763794, 0.34811254397789004, 1.7194665827334301], "scale": [0.39681857724014125, 0.13090225085420204, 93.32747175548124, 0.042249440103982495, 4.689953144093689, 9.400456711864752, 0.3672264018194138, 2.895794296236013]}, "trees": [{"nodeid": 0, "depth": 0, "split": "f5", "split_condition": -0.359211773, "yes": 1, "no": 2, "missing": 2, "children": [{"nodeid": 1, "leaf": 0.381582022}, {"nodeid": 2, "depth": 1, "split": "f0", "split_condition": 2.10741568, "yes": 3, "no": 4, "missing": 4, "children": [{"nodeid": 3, "leaf": -0.0574259125}, {"nodeid": 4, "leaf": 0.263253033}]}]}, {"nodeid": 0, "depth": 0, "split": "f6", "split_condition": -0.937329888, "yes": 1, "no": 2, "missing": 2, "children": [{"nodeid": 1, "leaf": 0.276717395}, {"nodeid": 2, "depth": 1, "split": "f7", "split_condition": -0.476681471, "yes": 3, "no": 4, "missing": 4, "children": [{"nodeid": 3, "depth": 2, "split": "f3", "split_condition": 1.23758972, "yes": 5, "no": 6, "missing": 6, "children": [{"nodeid": 5, "leaf": 0.213059574}, {"nodeid": 6, "leaf": 0.0620026551}]}, {"nodeid": 4, "leaf": -0.056969095}]}]}, {"nodeid": 0, "depth": 0, "split": "f6", "split_condition": -0.826387525, "yes": 1, "no": 2, "missing": 2, "children": [{"nodeid": 1, "depth": 1, "split": "f1", "split_condition": 0.407761425, "yes": 3, "no": 4, "missing": 4, "children": [{"nodeid": 3, "leaf": -0.0450026803}, {"nodeid": 4, "leaf": 0.222419575}]}, {"nodeid": 2, "leaf": -0.0566098988}]}, {"nodeid": 0, "depth": 0, "split": "f5", "split_condition": -0.353398383, "yes": 1, "no": 2, "missing": 2, "children": [{"nodeid": 1, "depth": 1, "split": "f0", "split_condition": -0.594237924, "yes": 3, "no": 4, "missing": 4, "children": [{"nodeid": 3, "leaf": -0.0438239835}, {"nodeid": 4, "leaf": 0.188020989}]}, {"nodeid": 2, "leaf": -0.0562387109}]}, {"nodeid": 0, "depth": 0, "split": "f5", "split_condition": -0.353398383, "yes": 1, "no": 2, "missing": 2, "children": [{"nodeid": 1, "depth": 1, "split": "f3", "split_condition": 1.01255429, "yes": 3, "no": 4, "missing": 4, "children": [{"nodeid": 3, "leaf": -0.0426732674}, {"nodeid": 4, "leaf": 0.164400414}]}, {"nodeid": 2, "leaf": -0.0559304357}]}, {"nodeid": 0, "depth": 0, "split": "f0", "split_condition": 1.08503163, "yes": 1, "no": 2, "missing": 2, "children": [{"nodeid": 1, "leaf": -0.0556038804}, {"nodeid": 2, "depth": 1, "split": "f6", "split_condition": -0.303454041, "yes": 3, "no": 4, "missing": 4, "children": [{"nodeid": 3, "leaf": 0.147093311}, {"nodeid": 4, "leaf": -0.0436216407}]}]}, {"nodeid": 0, "depth": 0, "split": "f6", "split_condition": -0.826387525, "yes": 1, "no": 2, "missing": 2, "children": [{"nodeid": 1, "depth": 1, "split": "f1", "split_condition": 0.407761425, "yes": 3, "no": 4, "missing": 4, "children": [{"nodeid": 3, "leaf": -0.0427504443}, {"nodeid": 4, "leaf": 0.133811817}]}, {"nodeid": 2, "leaf": -0.0552517958}]}, {"nodeid": 0, "depth": 0, "split": "f0", "split_condition": 1.08503163, "yes": 1, "no": 2, "missing": 2, "children": [{"nodeid": 1, "leaf": -0.0550071187}, {"nodeid": 2, "depth": 1, "split": "f6", "split_condition": -0.303454041, "yes": 3, "no": 4, "missing": 4, "children": [{"nodeid": 3, "leaf": 0.123349346}, {"nodeid": 4, "leaf": -0.0410648324}]}]}, {"nodeid": 0, "depth": 0, "split": "f6", "split_condition": -0.826387525, "yes": 1, "no": 2, "missing": 2, "children": [{"nodeid": 1, "depth": 1, "split": "f0", "split_condition": -0.703085423, "yes": 3, "no": 4, "missing": 4, "children": [{"nodeid": 3, "leaf": -0.0413036309}, {"nodeid": 4, "leaf": 0.114783525}]}, {"nodeid": 2, "leaf": -0.0546859913}]}, {"nodeid": 0, "depth": 0, "split": "f0", "split_condition": 1.08503163, "yes": 1, "no": 2, "missing": 2, "children": [{"nodeid": 1, "leaf": -0.0544771515}, {"nodeid": 2, "depth": 1, "split": "f6", "split_condition": -0.303454041, "yes": 3, "no": 4, "missing": 4, "children": [{"nodeid": 3, "leaf": 0.107795037}, {"nodeid": 4, "leaf": -0.0410290174}]}]}, {"nodeid": 0, "depth": 0, "split": "f5", "split_condition": -0.353398383, "yes": 1, "no": 2, "missing": 2, "children": [{"nodeid": 1, "depth": 1, "split": "f0", "split_condition": -0.594237924, "yes": 3, "no": 4, "missing": 4, "children": [{"nodeid": 3, "leaf": -0.0394538119}, {"nodeid": 4, "leaf": 0.10182362}]}, {"nodeid": 2, "leaf": -0.0541812479}]}, {"nodeid": 0, "depth": 0, "split": "f5", "split_condition": -0.353398383, "yes": 1, "no": 2, "missing": 2, "children": [{"nodeid": 1, "depth": 1, "split": "f3", "split_condition": 1.01255429, "yes": 3, "no": 4, "missing": 4, "children": [{"nodeid": 3, "leaf": -0.0392841101}, {"nodeid": 4, "leaf": 0.0968439355}]}, {"nodeid": 2, "leaf": -0.0540052019}]}, {"nodeid": 0, "depth": 0, "split": "f0", "split_condition": 1.08503163, "yes": 1, "no": 2, "missing": 2, "children": [{"nodeid": 1, "leaf": -0.0537390783}, {"nodeid": 2, "depth": 1, "split": "f6", "split_condition": -0.303454041, "yes": 3, "no": 4, "missing": 4, "children": [{"nodeid": 3, "leaf": 0.0925424099}, {"nodeid": 4, "leaf": -0.0395011567}]}]}, {"nodeid": 0, "depth": 0, "split": "f6", "split_condition": -0.826387525, "yes": 1, "no": 2, "missing": 2, "children": [{"nodeid": 1, "depth": 1, "split": "f3", "split_condition": 1.01255429, "yes": 3, "no": 4, "missing": 4, "children": [{"nodeid": 3, "leaf": -0.038280867}, {"nodeid": 4, "leaf": 0.0887245238}]}, {"nodeid": 2, "leaf": -0.0535258166}]}, {"nodeid": 0, "depth": 0, "split": "f5", "split_condition": -0.353398383, "yes": 1, "no": 2, "missing": 2, "children": [{"nodeid": 1, "depth": 1, "split": "f0", "split_condition": -0.623753071, "yes": 3, "no": 4, "missing": 4, "children": [{"nodeid": 3, "leaf": -0.0369074754}, {"nodeid": 4, "leaf": 0.0854444951}]}, {"nodeid": 2, "leaf": -0.0533290915}]}, {"nodeid": 0, "depth": 0, "split": "f5", "split_condition": -0.353398383, "yes": 1, "no": 2, "missing": 2, "children": [{"nodeid": 1, "depth": 1, "split": "f0", "split_condition": -0.594237924, "yes": 3, "no": 4, "missing": 4, "children": [{"nodeid": 3, "leaf": -0.0357331373}, {"nodeid": 4, "leaf": 0.0825229958}]}, {"nodeid": 2, "leaf": -0.0532097295}]}, {"nodeid": 0, "depth": 0, "split": "f0", "split_condition": 1.08503163, "yes": 1, "no": 2, "missing": 2, "children": [{"nodeid": 1, "depth": 1, "split": "f7", "split_condition": -0.46549347, "yes": 3, "no": 4, "missing": 4, "children": [{"nodeid": 3, "leaf": -0.00974916201}, {"nodeid": 4, "leaf": -0.0530357324}]}, {"nodeid": 2, "depth": 1, "split": "f6", "split_condition": -0.303454041, "yes": 5, "no": 6, "missing": 6, "children": [{"nodeid": 5, "leaf": 0.0800031498}, {"nodeid": 6, "leaf": -0.0349545628}]}]}, {"nodeid": 0, "depth": 0, "split": "f0", "split_condition": 1.08503163, "yes": 1, "no": 2, "missing": 2, "children": [{"nodeid": 1, "leaf": -0.0528725758}, {"nodeid": 2, "depth": 1, "split": "f3", "split_condition": 1.15924656, "yes": 3, "no": 4, "missing": 4, "children": [{"nodeid": 3, "leaf": -0.0345103107}, {"nodeid": 4, "leaf": 0.0775582716}]}]}, {"nodeid": 0, "depth": 0, "split": "f0", "split_condition": 1.08503163, "yes": 1, "no": 2, "missing": 2, "children": [{"nodeid": 1, "leaf": -0.0527180545}, {"nodeid": 2, "depth": 1, "split": "f6", "split_condition": -0.303454041, "yes": 3, "no": 4, "missing": 4, "children": [{"nodeid": 3, "leaf": 0.0756011978}, {"nodeid": 4, "leaf": -0.0370918512}]}]}, {"nodeid": 0, "depth": 0, "split": "f0", "split_condition": 1.08503163, "yes": 1, "no": 2, "missing": 2, "children": [{"nodeid": 1, "depth": 1, "split": "f7", "split_condition": -0.46549347, "yes": 3, "no": 4, "missing": 4, "children": [{"nodeid": 3, "leaf": -0.00803233683}, {"nodeid": 4, "leaf": -0.0525691397}]}, {"nodeid": 2, "depth": 1, "split": "f3", "split_condition": 1.15924656, "yes": 5, "no": 6, "missing": 6, "children": [{"nodeid": 5, "leaf": -0.03153871}, {"nodeid": 6, "leaf": 0.0736222044}]}]}, {"nodeid": 0, "depth": 0, "split": "f0", "split_condition": 1.08503163, "yes": 1, "no": 2, "missing": 2, "children": [{"nodeid": 1, "leaf": -0.0524295755}, {"nodeid": 2, "depth": 1, "split": "f5", "split_condition": -0.353398383, "yes": 3, "no": 4, "missing": 4, "children": [{"nodeid": 3, "leaf": 0.0719796047}, {"nodeid": 4, "depth": 2, "split": "f4", "split_condition": 1.50405455, "yes": 5, "no": 6, "missing": 6, "children": [{"nodeid": 5, "leaf": -0.0289541669}, {"nodeid": 6, "leaf": -0.00254730857}]}]}]}, {"nodeid": 0, "depth": 0, "split": "f5", "split_condition": -0.353398383, "yes": 1, "no": 2, "missing": 2, "children": [{"nodeid": 1, "depth": 1, "split": "f0", "split_condition": -0.623753071, "yes": 3, "no": 4, "missing": 4, "children": [{"nodeid": 3, "leaf": -0.0318448804}, {"nodeid": 4, "leaf": 0.0704689175}]}, {"nodeid": 2, "depth": 1, "split": "f0", "split_condition": 1.08503163, "yes": 5, "no": 6, "missing": 6, "children": [{"nodeid": 5, "leaf": -0.0522958711}, {"nodeid": 6, "depth": 2, "split": "f2", "split_condition": 0.0836295635, "yes": 7, "no": 8, "missing": 8, "children": [{"nodeid": 7, "leaf": -0.02886541}, {"nodeid": 8, "leaf": -0.00268836739}]}]}]}, {"nodeid": 0, "depth": 0, "split": "f5", "split_condition": -0.353398383, "yes": 1, "no": 2, "missing": 2, "children": [{"nodeid": 1, "depth": 1, "split": "f0", "split_condition": -0.594237924, "yes": 3, "no": 4, "missing": 4, "children": [{"nodeid": 3, "leaf": -0.029385699}, {"nodeid": 4, "leaf": 0.0690661818}]}, {"nodeid": 2, "depth": 1, "split": "f0", "split_condition": 1.08503163, "yes": 5, "no": 6, "missing": 6, "children": [{"nodeid": 5, "leaf": -0.0521691255}, {"nodeid": 6, "depth": 2, "split": "f4", "split_condition": 0.688187361, "yes": 7, "no": 8, "missing": 8, "children": [{"nodeid": 7, "leaf": -0.0271687936}, {"nodeid": 8, "leaf": -0.00294487597}]}]}]}, {"nodeid": 0, "depth": 0, "split": "f5", "split_condition": -0.353398383, "yes": 1, "no": 2, "missing": 2, "children": [{"nodeid": 1, "depth": 1, "split": "f0", "split_condition": -0.594237924, "yes": 3, "no": 4, "missing": 4, "children": [{"nodeid": 3, "leaf": -0.0315123089}, {"nodeid": 4, "leaf": 0.0677885041}]}, {"nodeid": 2, "depth": 1, "split": "f0", "split_condition": 1.08503163, "yes": 5, "no": 6, "missing": 6, "children": [{"nodeid": 5, "leaf": -0.0520500056}, {"nodeid": 6, "depth": 2, "split": "f2", "split_condition": 0.072875008, "yes": 7, "no": 8, "missing": 8, "children": [{"nodeid": 7, "leaf": -0.0288336221}, {"nodeid": 8, "leaf": -0.00260405405}]}]}]}, {"nodeid": 0, "depth": 0, "split": "f6", "split_condition": -0.826387525, "yes": 1, "no": 2, "missing": 2, "children": [{"nodeid": 1, "depth": 1, "split": "f0", "split_condition": -0.703085423, "yes": 3, "no": 4, "missing": 4, "children": [{"nodeid": 3, "leaf": -0.0323269777}, {"nodeid": 4, "leaf": 0.0666073859}]}, {"nodeid": 2, "leaf": -0.0519400723}]}, {"nodeid": 0, "depth": 0, "split": "f6", "split_condition": -0.826387525, "yes": 1, "no": 2, "missing": 2, "children": [{"nodeid": 1, "depth": 1, "split": "f0", "split_condition": -0.703085423, "yes": 3, "no": 4, "missing": 4, "children": [{"nodeid": 3, "leaf": -0.0316203684}, {"nodeid": 4, "leaf": 0.0655178502}]}, {"nodeid": 2, "depth": 1, "split": "f0", "split_condition": 1.08503163, "yes": 5, "no": 6, "missing": 6, "children": [{"nodeid": 5, "leaf": -0.0518276393}, {"nodeid": 6, "leaf": -0.0187151264}]}]}, {"nodeid": 0, "depth": 0, "split": "f0", "split_condition": 1.08503163, "yes": 1, "no": 2, "missing": 2, "children": [{"nodeid": 1, "leaf": -0.0517252944}, {"nodeid": 2, "depth": 1, "split": "f6", "split_condition": -0.303454041, "yes": 3, "no": 4, "missing": 4, "children": [{"nodeid": 3, "leaf": 0.0645721257}, {"nodeid": 4, "leaf": -0.032484673}]}]}, {"nodeid": 0, "depth": 0, "split": "f6", "split_condition": -0.826387525, "yes": 1, "no": 2, "missing": 2, "children": [{"nodeid": 1, "depth": 1, "split": "f0", "split_condition": -0.703085423, "yes": 3, "no": 4, "missing": 4, "children": [{"nodeid": 3, "leaf": -0.0321001187}, {"nodeid": 4, "leaf": 0.0636011958}]}, {"nodeid": 2, "depth": 1, "split": "f3", "split_condition": 2.16213346, "yes": 5, "no": 6, "missing": 6, "children": [{"nodeid": 5, "leaf": -0.0516300276}, {"nodeid": 6, "depth": 2, "split": "f1", "split_condition": 2.31488848, "yes": 7, "no": 8, "missing": 8, "children": [{"nodeid": 7, "leaf": -0.00216636388}, {"nodeid": 8, "leaf": -0.0265181065}]}]}]}, {"nodeid": 0, "depth": 0, "split": "f0", "split_condition": 1.08503163, "yes": 1, "no": 2, "missing": 2, "children": [{"nodeid": 1, "depth": 1, "split": "f2", "split_condition": 0.327841461, "yes": 3, "no": 4, "missing": 4, "children": [{"nodeid": 3, "leaf": -0.0515330732}, {"nodeid": 4, "leaf": -0.0138644818}]}, {"nodeid": 2, "depth": 1, "split": "f6", "split_condition": -0.303454041, "yes": 5, "no": 6, "missing": 6, "children": [{"nodeid": 5, "leaf": 0.0628073514}, {"nodeid": 6, "leaf": -0.0318684839}]}]}, {"nodeid": 0, "depth": 0, "split": "f5", "split_condition": -0.353398383, "yes": 1, "no": 2, "missing": 2, "children": [{"nodeid": 1, "depth": 1, "split": "f3", "split_condition": 0.980237544, "yes": 3, "no": 4, "missing": 4, "children": [{"nodeid": 3, "leaf": -0.0295271035}, {"nodeid": 4, "leaf": 0.061947491}]}, {"nodeid": 2, "depth": 1, "split": "f3", "split_condition": 2.16213346, "yes": 5, "no": 6, "missing": 6, "children": [{"nodeid": 5, "leaf": -0.0514461361}, {"nodeid": 6, "leaf": -0.0179882403}]}]}, {"nodeid": 0, "depth": 0, "split": "f0", "split_condition": 1.08503163, "yes": 1, "no": 2, "missing": 2, "children": [{"nodeid": 1, "depth": 1, "split": "f2", "split_condition": 0.327841461, "yes": 3, "no": 4, "missing": 4, "children": [{"nodeid": 3, "leaf": -0.0513589047}, {"nodeid": 4, "leaf": -0.0130023733}]}, {"nodeid": 2, "depth": 1, "split": "f6", "split_condition": -0.303454041, "yes": 5, "no": 6, "missing": 6, "children": [{"nodeid": 5, "leaf": 0.0612987652}, {"nodeid": 6, "leaf": -0.0319609195}]}]}, {"nodeid": 0, "depth": 0, "split": "f0", "split_condition": 1.08503163, "yes": 1, "no": 2, "missing": 2, "children": [{"nodeid": 1, "leaf": -0.0512766913}, {"nodeid": 2, "depth": 1, "split": "f3", "split_condition": 1.15924656, "yes": 3, "no": 4, "missing": 4, "children": [{"nodeid": 3, "leaf": -0.0205187462}, {"nodeid": 4, "leaf": 0.0604768358}]}]}, {"nodeid": 0, "depth": 0, "split": "f5", "split_condition": -0.353398383, "yes": 1, "no": 2, "missing": 2, "children": [{"nodeid": 1, "depth": 1, "split": "f3", "split_condition": 0.980237544, "yes": 3, "no": 4, "missing": 4, "children": [{"nodeid": 3, "leaf": -0.0263255592}, {"nodeid": 4, "leaf": 0.0599034093}]}, {"nodeid": 2, "leaf": -0.0512011126}]}, {"nodeid": 0, "depth": 0, "split": "f0", "split_condition": 1.08503163, "yes": 1, "no": 2, "missing": 2, "children": [{"nodeid": 1, "leaf": -0.0511230715}, {"nodeid": 2, "depth": 1, "split": "f6", "split_condition": -0.303454041, "yes": 3, "no": 4, "missing": 4, "children": [{"nodeid": 3, "leaf": 0.0593885146}, {"nodeid": 4, "leaf": -0.029007528}]}]}, {"nodeid": 0, "depth": 0, "split": "f6", "split_condition": -0.826387525, "yes": 1, "no": 2, "missing": 2, "children": [{"nodeid": 1, "depth": 1, "split": "f3", "split_condition": 1.15924656, "yes": 3, "no": 4, "missing": 4, "children": [{"nodeid": 3, "leaf": -0.0185852107}, {"nodeid": 4, "leaf": 0.0587271452}]}, {"nodeid": 2, "depth": 1, "split": "f3", "split_condition": 2.16213346, "yes": 5, "no": 6, "missing": 6, "children": [{"nodeid": 5, "leaf": -0.0510519743}, {"nodeid": 6, "leaf": -0.0140422648}]}]}, {"nodeid": 0, "depth": 0, "split": "f6", "split_condition": -0.826387525, "yes": 1, "no": 2, "missing": 2, "children": [{"nodeid": 1, "depth": 1, "split": "f0", "split_condition": -0.703085423, "yes": 3, "no": 4, "missing": 4, "children": [{"nodeid": 3, "leaf": -0.0257806927}, {"nodeid": 4, "leaf": 0.058252722}]}, {"nodeid": 2, "leaf": -0.0509869829}]}, {"nodeid": 0, "depth": 0, "split": "f6", "split_condition": -0.826387525, "yes": 1, "no": 2, "missing": 2, "children": [{"nodeid": 1, "depth": 1, "split": "f3", "split_condition": 1.15924656, "yes": 3, "no": 4, "missing": 4, "children": [{"nodeid": 3, "leaf": -0.017890444}, {"nodeid": 4, "leaf": 0.0577149875}]}, {"nodeid": 2, "leaf": -0.0509192944}]}, {"nodeid": 0, "depth": 0, "split": "f5", "split_condition": -0.353398383, "yes": 1, "no": 2, "missing": 2, "children": [{"nodeid": 1, "depth": 1, "split": "f4", "split_condition": -0.39928019, "yes": 3, "no": 4, "missing": 4, "children": [{"nodeid": 3, "leaf": -0.0195697695}, {"nodeid": 4, "leaf": 0.0573075004}]}, {"nodeid": 2, "leaf": -0.0508546047}]}, {"nodeid": 0, "depth": 0, "split": "f0", "split_condition": 1.08503163, "yes": 1, "no": 2, "missing": 2, "children": [{"nodeid": 1, "leaf": -0.0507914983}, {"nodeid": 2, "depth": 1, "split": "f6", "split_condition": -0.303454041, "yes": 3, "no": 4, "missing": 4, "children": [{"nodeid": 3, "leaf": 0.056988474}, {"nodeid": 4, "leaf": -0.02719119}]}]}, {"nodeid": 0, "depth": 0, "split": "f6", "split_condition": -0.826387525, "yes": 1, "no": 2, "missing": 2, "children": [{"nodeid": 1, "depth": 1, "split": "f1", "split_condition": 0.528481126, "yes": 3, "no": 4, "missing": 4, "children": [{"nodeid": 3, "leaf": -0.00815820228}, {"nodeid": 4, "leaf": 0.0564811118}]}, {"nodeid": 2, "depth": 1, "split": "f3", "split_condition": 2.16213346, "yes": 5, "no": 6, "missing": 6, "children": [{"nodeid": 5, "leaf": -0.0507308617}, {"nodeid": 6, "leaf": -0.00777368946}]}]}, {"nodeid": 0, "depth": 0, "split": "f0", "split_condition": 1.08503163, "yes": 1, "no": 2, "missing": 2, "children": [{"nodeid": 1, "depth": 1, "split": "f5", "split_condition": -0.353398383, "yes": 3, "no": 4, "missing": 4, "children": [{"nodeid": 3, "leaf": -0.0092803007}, {"nodeid": 4, "leaf": -0.0506723411}]}, {"nodeid": 2, "depth": 1, "split": "f6", "split_condition": -0.303454041, "yes": 5, "no": 6, "missing": 6, "children": [{"nodeid": 5, "leaf": 0.0562187247}, {"nodeid": 6, "leaf": -0.0258374605}]}]}, {"nodeid": 0, "depth": 0, "split": "f0", "split_condition": 1.08503163, "yes": 1, "no": 2, "missing": 2, "children": [{"nodeid": 1, "depth": 1, "split": "f2", "split_condition": 0.327841461, "yes": 3, "no": 4, "missing": 4, "children": [{"nodeid": 3, "leaf": -0.0506190248}, {"nodeid": 4, "leaf": -0.00833826978}]}, {"nodeid": 2, "depth": 1, "split": "f5", "split_condition": -0.353398383, "yes": 5, "no": 6, "missing": 6, "children": [{"nodeid": 5, "leaf": 0.0556999743}, {"nodeid": 6, "leaf": -0.00348756649}]}]}, {"nodeid": 0, "depth": 0, "split": "f6", "split_condition": -0.826387525, "yes": 1, "no": 2, "missing": 2, "children": [{"nodeid": 1, "depth": 1, "split": "f1", "split_condition": 0.528481126, "yes": 3, "no": 4, "missing": 4, "children": [{"nodeid": 3, "leaf": -0.00931981392}, {"nodeid": 4, "leaf": 0.0553534143}]}, {"nodeid": 2, "leaf": -0.050567545}]}, {"nodeid": 0, "depth": 0, "split": "f0", "split_condition": 1.08503163, "yes": 1, "no": 2, "missing": 2, "children": [{"nodeid": 1, "depth": 1, "split": "f6", "split_condition": -0.826387525, "yes": 3, "no": 4, "missing": 4, "children": [{"nodeid": 3, "leaf": -0.00899486057}, {"nodeid": 4, "leaf": -0.0505103841}]}, {"nodeid": 2, "depth": 1, "split": "f6", "split_condition": -0.826387525, "yes": 5, "no": 6, "missing": 6, "children": [{"nodeid": 5, "leaf": 0.0550452583}, {"nodeid": 6, "leaf": -0.00491776597}]}]}, {"nodeid": 0, "depth": 0, "split": "f0", "split_condition": 1.08503163, "yes": 1, "no": 2, "missing": 2, "children": [{"nodeid": 1, "depth": 1, "split": "f2", "split_condition": 0.28608349, "yes": 3, "no": 4, "missing": 4, "children": [{"nodeid": 3, "leaf": -0.0504614487}, {"nodeid": 4, "leaf": -0.00894089509}]}, {"nodeid": 2, "depth": 1, "split": "f7", "split_condition": -0.414657682, "yes": 5, "no": 6, "missing": 6, "children": [{"nodeid": 5, "leaf": 0.0547060743}, {"nodeid": 6, "leaf": -0.0192417223}]}]}, {"nodeid": 0, "depth": 0, "split": "f6", "split_condition": -0.826387525, "yes": 1, "no": 2, "missing": 2, "children": [{"nodeid": 1, "depth": 1, "split": "f4", "split_condition": -0.391735345, "yes": 3, "no": 4, "missing": 4, "children": [{"nodeid": 3, "leaf": -0.000394523115}, {"nodeid": 4, "leaf": 0.0544472449}]}, {"nodeid": 2, "depth": 1, "split": "f3", "split_condition": 2.16213346, "yes": 5, "no": 6, "missing": 6, "children": [{"nodeid": 5, "leaf": -0.0504121482}, {"nodeid": 6, "leaf": -0.00213853992}]}]}, {"nodeid": 0, "depth": 0, "split": "f5", "split_condition": -0.353398383, "yes": 1, "no": 2, "missing": 2, "children": [{"nodeid": 1, "depth": 1, "split": "f4", "split_condition": -0.391735345, "yes": 3, "no": 4, "missing": 4, "children": [{"nodeid": 3, "leaf": -0.00590571761}, {"nodeid": 4, "leaf": 0.0542374142}]}, {"nodeid": 2, "leaf": -0.0503679626}]}, {"nodeid": 0, "depth": 0, "split": "f0", "split_condition": 1.08503163, "yes": 1, "no": 2, "missing": 2, "children": [{"nodeid": 1, "depth": 1, "split": "f2", "split_condition": 0.28608349, "yes": 3, "no": 4, "missing": 4, "children": [{"nodeid": 3, "leaf": -0.0503156185}, {"nodeid": 4, "leaf": -0.00968060363}]}, {"nodeid": 2, "depth": 1, "split": "f6", "split_condition": -0.826387525, "yes": 5, "no": 6, "missing": 6, "children": [{"nodeid": 5, "leaf": 0.0539385676}, {"nodeid": 6, "leaf": -0.00304164574}]}]}, {"nodeid": 0, "depth": 0, "split": "f0", "split_condition": 1.08503163, "yes": 1, "no": 2, "missing": 2, "children": [{"nodeid": 1, "depth": 1, "split": "f2", "split_condition": 0.28608349, "yes": 3, "no": 4, "missing": 4, "children": [{"nodeid": 3, "leaf": -0.0502669215}, {"nodeid": 4, "leaf": -0.00949967839}]}, {"nodeid": 2, "depth": 1, "split": "f5", "split_condition": -0.353398383, "yes": 5, "no": 6, "missing": 6, "children": [{"nodeid": 5, "leaf": 0.0536852591}, {"nodeid": 6, "leaf": -0.00308627263}]}]}, {"nodeid": 0, "depth": 0, "split": "f0", "split_condition": 1.08503163, "yes": 1, "no": 2, "missing": 2, "children": [{"nodeid": 1, "depth": 1, "split": "f7", "split_condition": -0.450789452, "yes": 3, "no": 4, "missing": 4, "children": [{"nodeid": 3, "leaf": -0.0121085634}, {"nodeid": 4, "leaf": -0.0502198525}]}, {"nodeid": 2, "depth": 1, "split": "f5", "split_condition": -0.353398383, "yes": 5, "no": 6, "missing": 6, "children": [{"nodeid": 5, "leaf": 0.0534673147}, {"nodeid": 6, "leaf": -0.003878674}]}]}, {"nodeid": 0, "depth": 0, "split": "f0", "split_condition": 1.08503163, "yes": 1, "no": 2, "missing": 2, "children": [{"nodeid": 1, "depth": 1, "split": "f2", "split_condition": 0.28608349, "yes": 3, "no": 4, "missing": 4, "children": [{"nodeid": 3, "leaf": -0.0501747616}, {"nodeid": 4, "leaf": -0.00869494956}]}, {"nodeid": 2, "depth": 1, "split": "f5", "split_condition": -0.353398383, "yes": 5, "no": 6, "missing": 6, "children": [{"nodeid": 5, "leaf": 0.0532438345}, {"nodeid": 6, "leaf": -0.00276716752}]}]}, {"nodeid": 0, "depth": 0, "split": "f5", "split_condition": -0.353398383, "yes": 1, "no": 2, "missing": 2, "children": [{"nodeid": 1, "depth": 1, "split": "f7", "split_condition": -0.435049385, "yes": 3, "no": 4, "missing": 4, "children": [{"nodeid": 3, "leaf": 0.0530206859}, {"nodeid": 4, "leaf": 0.00704117585}]}, {"nodeid": 2, "leaf": -0.0501367263}]}, {"nodeid": 0, "depth": 0, "split": "f0", "split_condition": 1.08503163, "yes": 1, "no": 2, "missing": 2, "children": [{"nodeid": 1, "depth": 1, "split": "f2", "split_condition": 0.248821571, "yes": 3, "no": 4, "missing": 4, "children": [{"nodeid": 3, "leaf": -0.0500879586}, {"nodeid": 4, "leaf": -0.0116317263}]}, {"nodeid": 2, "depth": 1, "split": "f5", "split_condition": -0.353398383, "yes": 5, "no": 6, "missing": 6, "children": [{"nodeid": 5, "leaf": 0.0528418235}, {"nodeid": 6, "leaf": -0.0022611809}]}]}, {"nodeid": 0, "depth": 0, "split": "f0", "split_condition": 1.08503163, "yes": 1, "no": 2, "missing": 2, "children": [{"nodeid": 1, "leaf": -0.050049182}, {"nodeid": 2, "depth": 1, "split": "f5", "split_condition": -0.353398383, "yes": 3, "no": 4, "missing": 4, "children": [{"nodeid": 3, "leaf": 0.0526462868}, {"nodeid": 4, "leaf": -0.00257375394}]}]}, {"nodeid": 0, "depth": 0, "split": "f6", "split_condition": -0.826387525, "yes": 1, "no": 2, "missing": 2, "children": [{"nodeid": 1, "depth": 1, "split": "f7", "split_condition": -0.435049385, "yes": 3, "no": 4, "missing": 4, "children": [{"nodeid": 3, "leaf": 0.0525388531}, {"nodeid": 4, "leaf": -0.000134591901}]}, {"nodeid": 2, "depth": 1, "split": "f3", "split_condition": 1.97576761, "yes": 5, "no": 6, "missing": 6, "children": [{"nodeid": 5, "leaf": -0.0500019155}, {"nodeid": 6, "leaf": -0.00685597677}]}]}, {"nodeid": 0, "depth": 0, "split": "f0", "split_condition": 1.08503163, "yes": 1, "no": 2, "missing": 2, "children": [{"nodeid": 1, "depth": 1, "split": "f7", "split_condition": -0.446080893, "yes": 3, "no": 4, "missing": 4, "children": [{"nodeid": 3, "leaf": -0.0095395511}, {"nodeid": 4, "leaf": -0.0499540418}]}, {"nodeid": 2, "depth": 1, "split": "f3", "split_condition": 1.16892731, "yes": 5, "no": 6, "missing": 6, "children": [{"nodeid": 5, "leaf": 0.00772217428}, {"nodeid": 6, "leaf": 0.0524411611}]}]}, {"nodeid": 0, "depth": 0, "split": "f5", "split_condition": -0.353398383, "yes": 1, "no": 2, "missing": 2, "children": [{"nodeid": 1, "depth": 1, "split": "f7", "split_condition": -0.435049385, "yes": 3, "no": 4, "missing": 4, "children": [{"nodeid": 3, "leaf": 0.0521949306}, {"nodeid": 4, "leaf": 0.00877950992}]}, {"nodeid": 2, "leaf": -0.0499228425}]}, {"nodeid": 0, "depth": 0, "split": "f5", "split_condition": -0.353398383, "yes": 1, "no": 2, "missing": 2, "children": [{"nodeid": 1, "depth": 1, "split": "f4", "split_condition": -0.387931556, "yes": 3, "no": 4, "missing": 4, "children": [{"nodeid": 3, "leaf": 0.0024928893}, {"nodeid": 4, "leaf": 0.052033104}]}, {"nodeid": 2, "leaf": -0.0498743095}]}, {"nodeid": 0, "depth": 0, "split": "f0", "split_condition": 1.08503163, "yes": 1, "no": 2, "missing": 2, "children": [{"nodeid": 1, "depth": 1, "split": "f0", "split_condition": 0.761165738, "yes": 3, "no": 4, "missing": 4, "children": [{"nodeid": 3, "leaf": -0.0498187542}, {"nodeid": 4, "leaf": -0.0114192739}]}, {"nodeid": 2, "depth": 1, "split": "f3", "split_condition": 1.16892731, "yes": 5, "no": 6, "missing": 6, "children": [{"nodeid": 5, "leaf": 0.00897361152}, {"nodeid": 6, "leaf": 0.0520043559}]}]}, {"nodeid": 0, "depth": 0, "split": "f0", "split_condition": 1.08503163, "yes": 1, "no": 2, "missing": 2, "children": [{"nodeid": 1, "depth": 1, "split": "f2", "split_condition": 0.226851448, "yes": 3, "no": 4, "missing": 4, "children": [{"nodeid": 3, "leaf": -0.0497787893}, {"nodeid": 4, "leaf": -0.0105807325}]}, {"nodeid": 2, "depth": 1, "split": "f3", "split_condition": 1.16892731, "yes": 5, "no": 6, "missing": 6, "children": [{"nodeid": 5, "leaf": 0.00745954318}, {"nodeid": 6, "leaf": 0.0518727973}]}]}, {"nodeid": 0, "depth": 0, "split": "f5", "split_condition": -0.353398383, "yes": 1, "no": 2, "missing": 2, "children": [{"nodeid": 1, "depth": 1, "split": "f4", "split_condition": -0.384187281, "yes": 3, "no": 4, "missing": 4, "children": [{"nodeid": 3, "leaf": 0.00710859988}, {"nodeid": 4, "leaf": 0.0516024493}]}, {"nodeid": 2, "leaf": -0.049748335}]}, {"nodeid": 0, "depth": 0, "split": "f6", "split_condition": -0.826387525, "yes": 1, "no": 2, "missing": 2, "children": [{"nodeid": 1, "depth": 1, "split": "f7", "split_condition": -0.435049385, "yes": 3, "no": 4, "missing": 4, "children": [{"nodeid": 3, "leaf": 0.0514499508}, {"nodeid": 4, "leaf": 0.00535025448}]}, {"nodeid": 2, "depth": 1, "split": "f0", "split_condition": 1.08503163, "yes": 5, "no": 6, "missing": 6, "children": [{"nodeid": 5, "leaf": -0.0496882908}, {"nodeid": 6, "leaf": -0.00217316323}]}]}, {"nodeid": 0, "depth": 0, "split": "f5", "split_condition": -0.353398383, "yes": 1, "no": 2, "missing": 2, "children": [{"nodeid": 1, "depth": 1, "split": "f4", "split_condition": -0.384187281, "yes": 3, "no": 4, "missing": 4, "children": [{"nodeid": 3, "leaf": 0.00505765062}, {"nodeid": 4, "leaf": 0.0513244756}]}, {"nodeid": 2, "leaf": -0.0496540405}]}, {"nodeid": 0, "depth": 0, "split": "f5", "split_condition": -0.353398383, "yes": 1, "no": 2, "missing": 2, "children": [{"nodeid": 1, "depth": 1, "split": "f3", "split_condition": 1.16892731, "yes": 3, "no": 4, "missing": 4, "children": [{"nodeid": 3, "leaf": 0.00925903674}, {"nodeid": 4, "leaf": 0.0511787012}]}, {"nodeid": 2, "leaf": -0.0496109426}]}, {"nodeid": 0, "depth": 0, "split": "f0", "split_condition": 0.855770767, "yes": 1, "no": 2, "missing": 2, "children": [{"nodeid": 1, "leaf": -0.0495547019}, {"nodeid": 2, "depth": 1, "split": "f6", "split_condition": -0.303454041, "yes": 3, "no": 4, "missing": 4, "children": [{"nodeid": 3, "leaf": 0.0516113527}, {"nodeid": 4, "leaf": -0.0258641634}]}]}, {"nodeid": 0, "depth": 0, "split": "f0", "split_condition": 0.855770767, "yes": 1, "no": 2, "missing": 2, "children": [{"nodeid": 1, "leaf": -0.0495053418}, {"nodeid": 2, "depth": 1, "split": "f6", "split_condition": -0.303454041, "yes": 3, "no": 4, "missing": 4, "children": [{"nodeid": 3, "leaf": 0.05150019}, {"nodeid": 4, "leaf": -0.0257377829}]}]}, {"nodeid": 0, "depth": 0, "split": "f6", "split_condition": -0.826387525, "yes": 1, "no": 2, "missing": 2, "children": [{"nodeid": 1, "depth": 1, "split": "f1", "split_condition": 0.575135887, "yes": 3, "no": 4, "missing": 4, "children": [{"nodeid": 3, "leaf": 0.00563530345}, {"nodeid": 4, "leaf": 0.0507979207}]}, {"nodeid": 2, "leaf": -0.0494675525}]}, {"nodeid": 0, "depth": 0, "split": "f0", "split_condition": 1.08503163, "yes": 1, "no": 2, "missing": 2, "children": [{"nodeid": 1, "leaf": -0.0494072251}, {"nodeid": 2, "depth": 1, "split": "f3", "split_condition": 1.16892731, "yes": 3, "no": 4, "missing": 4, "children": [{"nodeid": 3, "leaf": 0.0032465749}, {"nodeid": 4, "leaf": 0.0509513989}]}]}, {"nodeid": 0, "depth": 0, "split": "f6", "split_condition": -0.826387525, "yes": 1, "no": 2, "missing": 2, "children": [{"nodeid": 1, "depth": 1, "split": "f6", "split_condition": -0.937329888, "yes": 3, "no": 4, "missing": 4, "children": [{"nodeid": 3, "leaf": 0.0505862832}, {"nodeid": 4, "leaf": 0.00989206694}]}, {"nodeid": 2, "depth": 1, "split": "f3", "split_condition": 1.85549986, "yes": 5, "no": 6, "missing": 6, "children": [{"nodeid": 5, "leaf": -0.0493493453}, {"nodeid": 6, "leaf": -0.00200499268}]}]}, {"nodeid": 0, "depth": 0, "split": "f5", "split_condition": -0.353398383, "yes": 1, "no": 2, "missing": 2, "children": [{"nodeid": 1, "depth": 1, "split": "f4", "split_condition": -0.381514043, "yes": 3, "no": 4, "missing": 4, "children": [{"nodeid": 3, "leaf": 0.00783239119}, {"nodeid": 4, "leaf": 0.0504494905}]}, {"nodeid": 2, "leaf": -0.0493131094}]}, {"nodeid": 0, "depth": 0, "split": "f0", "split_condition": 1.08503163, "yes": 1, "no": 2, "missing": 2, "children": [{"nodeid": 1, "depth": 1, "split": "f5", "split_condition": -0.349198878, "yes": 3, "no": 4, "missing": 4, "children": [{"nodeid": 3, "leaf": -0.0126582729}, {"nodeid": 4, "leaf": -0.0492290668}]}, {"nodeid": 2, "depth": 1, "split": "f3", "split_condition": 1.16892731, "yes": 5, "no": 6, "missing": 6, "children": [{"nodeid": 5, "leaf": 0.00421438226}, {"nodeid": 6, "leaf": 0.0506250449}]}]}, {"nodeid": 0, "depth": 0, "split": "f0", "split_condition": 0.855770767, "yes": 1, "no": 2, "missing": 2, "children": [{"nodeid": 1, "leaf": -0.0491841659}, {"nodeid": 2, "depth": 1, "split": "f3", "split_condition": 1.16892731, "yes": 3, "no": 4, "missing": 4, "children": [{"nodeid": 3, "leaf": -0.00352982921}, {"nodeid": 4, "leaf": 0.050454665}]}]}, {"nodeid": 0, "depth": 0, "split": "f0", "split_condition": 0.855770767, "yes": 1, "no": 2, "missing": 2, "children": [{"nodeid": 1, "leaf": -0.0491271764}, {"nodeid": 2, "depth": 1, "split": "f3", "split_condition": 1.16892731, "yes": 3, "no": 4, "missing": 4, "children": [{"nodeid": 3, "leaf": -0.00269207219}, {"nodeid": 4, "leaf": 0.0504417606}]}]}, {"nodeid": 0, "depth": 0, "split": "f0", "split_condition": 1.08503163, "yes": 1, "no": 2, "missing": 2, "children": [{"nodeid": 1, "leaf": -0.0490709171}, {"nodeid": 2, "depth": 1, "split": "f0", "split_condition": 1.42192304, "yes": 3, "no": 4, "missing": 4, "children": [{"nodeid": 3, "leaf": 0.00662988937}, {"nodeid": 4, "leaf": 0.0503463224}]}]}, {"nodeid": 0, "depth": 0, "split": "f0", "split_condition": 1.08503163, "yes": 1, "no": 2, "missing": 2, "children": [{"nodeid": 1, "leaf": -0.0490214676}, {"nodeid": 2, "depth": 1, "split": "f0", "split_condition": 1.42192304, "yes": 3, "no": 4, "missing": 4, "children": [{"nodeid": 3, "leaf": 0.00570141058}, {"nodeid": 4, "leaf": 0.0502160192}]}]}, {"nodeid": 0, "depth": 0, "split": "f5", "split_condition": -0.353398383, "yes": 1, "no": 2, "missing": 2, "children": [{"nodeid": 1, "depth": 1, "split": "f1", "split_condition": 0.607923746, "yes": 3, "no": 4, "missing": 4, "children": [{"nodeid": 3, "leaf": 0.0146587342}, {"nodeid": 4, "leaf": 0.0496477969}]}, {"nodeid": 2, "depth": 1, "split": "f3", "split_condition": 1.74768221, "yes": 5, "no": 6, "missing": 6, "children": [{"nodeid": 5, "leaf": -0.0489397347}, {"nodeid": 6, "leaf": -0.00192678056}]}]}, {"nodeid": 0, "depth": 0, "split": "f0", "split_condition": 0.855770767, "yes": 1, "no": 2, "missing": 2, "children": [{"nodeid": 1, "leaf": -0.0488748029}, {"nodeid": 2, "depth": 1, "split": "f0", "split_condition": 1.42192304, "yes": 3, "no": 4, "missing": 4, "children": [{"nodeid": 3, "leaf": 0.00203041406}, {"nodeid": 4, "leaf": 0.0500340648}]}]}, {"nodeid": 0, "depth": 0, "split": "f0", "split_condition": 0.855770767, "yes": 1, "no": 2, "missing": 2, "children": [{"nodeid": 1, "leaf": -0.0488059819}, {"nodeid": 2, "depth": 1, "split": "f3", "split_condition": 1.16892731, "yes": 3, "no": 4, "missing": 4, "children": [{"nodeid": 3, "leaf": -0.00484739384}, {"nodeid": 4, "leaf": 0.0499474667}]}]}, {"nodeid": 0, "depth": 0, "split": "f0", "split_condition": 0.855770767, "yes": 1, "no": 2, "missing": 2, "children": [{"nodeid": 1, "leaf": -0.0487313084}, {"nodeid": 2, "depth": 1, "split": "f5", "split_condition": -0.353398383, "yes": 3, "no": 4, "missing": 4, "children": [{"nodeid": 3, "leaf": 0.0495050065}, {"nodeid": 4, "leaf": -0.002352793}]}]}, {"nodeid": 0, "depth": 0, "split": "f0", "split_condition": 1.08503163, "yes": 1, "no": 2, "missing": 2, "children": [{"nodeid": 1, "leaf": -0.0486732498}, {"nodeid": 2, "depth": 1, "split": "f0", "split_condition": 1.63721347, "yes": 3, "no": 4, "missing": 4, "children": [{"nodeid": 3, "leaf": 0.0161019675}, {"nodeid": 4, "leaf": 0.049731724}]}]}, {"nodeid": 0, "depth": 0, "split": "f0", "split_condition": 1.08503163, "yes": 1, "no": 2, "missing": 2, "children": [{"nodeid": 1, "leaf": -0.0485993251}, {"nodeid": 2, "depth": 1, "split": "f0", "split_condition": 1.42192304, "yes": 3, "no": 4, "missing": 4, "children": [{"nodeid": 3, "leaf": 0.00347046484}, {"nodeid": 4, "leaf": 0.0495666377}]}]}, {"nodeid": 0, "depth": 0, "split": "f0", "split_condition": 0.855770767, "yes": 1, "no": 2, "missing": 2, "children": [{"nodeid": 1, "leaf": -0.0485125594}, {"nodeid": 2, "depth": 1, "split": "f0", "split_condition": 1.42192304, "yes": 3, "no": 4, "missing": 4, "children": [{"nodeid": 3, "leaf": 0.00509936176}, {"nodeid": 4, "leaf": 0.0495303273}]}]}, {"nodeid": 0, "depth": 0, "split": "f6", "split_condition": -0.826387525, "yes": 1, "no": 2, "missing": 2, "children": [{"nodeid": 1, "leaf": 0.048374977}, {"nodeid": 2, "depth": 1, "split": "f3", "split_condition": 1.6777426, "yes": 3, "no": 4, "missing": 4, "children": [{"nodeid": 3, "leaf": -0.0484164879}, {"nodeid": 4, "leaf": -0.00219910475}]}]}, {"nodeid": 0, "depth": 0, "split": "f0", "split_condition": 0.855770767, "yes": 1, "no": 2, "missing": 2, "children": [{"nodeid": 1, "leaf": -0.0483537689}, {"nodeid": 2, "depth": 1, "split": "f3", "split_condition": 1.16892731, "yes": 3, "no": 4, "missing": 4, "children": [{"nodeid": 3, "leaf": -0.00350908423}, {"nodeid": 4, "leaf": 0.0493389517}]}]}, {"nodeid": 0, "depth": 0, "split": "f6", "split_condition": -0.826387525, "yes": 1, "no": 2, "missing": 2, "children": [{"nodeid": 1, "leaf": 0.0480082929}, {"nodeid": 2, "leaf": -0.0483200811}]}, {"nodeid": 0, "depth": 0, "split": "f0", "split_condition": 1.08503163, "yes": 1, "no": 2, "missing": 2, "children": [{"nodeid": 1, "leaf": -0.0481794067}, {"nodeid": 2, "depth": 1, "split": "f3", "split_condition": 1.17399645, "yes": 3, "no": 4, "missing": 4, "children": [{"nodeid": 3, "leaf": 0.0112308702}, {"nodeid": 4, "leaf": 0.0490977056}]}]}, {"nodeid": 0, "depth": 0, "split": "f0", "split_condition": 0.855770767, "yes": 1, "no": 2, "missing": 2, "children": [{"nodeid": 1, "leaf": -0.0480721928}, {"nodeid": 2, "depth": 1, "split": "f0", "split_condition": 1.42192304, "yes": 3, "no": 4, "missing": 4, "children": [{"nodeid": 3, "leaf": 0.00316566858}, {"nodeid": 4, "leaf": 0.0488686077}]}]}, {"nodeid": 0, "depth": 0, "split": "f0", "split_condition": 1.42192304, "yes": 1, "no": 2, "missing": 2, "children": [{"nodeid": 1, "depth": 1, "split": "f5", "split_condition": -0.346882194, "yes": 3, "no": 4, "missing": 4, "children": [{"nodeid": 3, "leaf": -0.00527365273}, {"nodeid": 4, "leaf": -0.0479794145}]}, {"nodeid": 2, "leaf": 0.0487558395}]}, {"nodeid": 0, "depth": 0, "split": "f6", "split_condition": -0.826387525, "yes": 1, "no": 2, "missing": 2, "children": [{"nodeid": 1, "leaf": 0.0474242084}, {"nodeid": 2, "depth": 1, "split": "f2", "split_condition": 0.114751041, "yes": 3, "no": 4, "missing": 4, "children": [{"nodeid": 3, "leaf": -0.0478563793}, {"nodeid": 4, "leaf": -0.00280134613}]}]}, {"nodeid": 0, "depth": 0, "split": "f0", "split_condition": 0.855770767, "yes": 1, "no": 2, "missing": 2, "children": [{"nodeid": 1, "leaf": -0.0477694981}, {"nodeid": 2, "depth": 1, "split": "f0", "split_condition": 1.42192304, "yes": 3, "no": 4, "missing": 4, "children": [{"nodeid": 3, "leaf": 0.00278268801}, {"nodeid": 4, "leaf": 0.0482322536}]}]}, {"nodeid": 0, "depth": 0, "split": "f0", "split_condition": 0.855770767, "yes": 1, "no": 2, "missing": 2, "children": [{"nodeid": 1, "leaf": -0.0476531945}, {"nodeid": 2, "depth": 1, "split": "f0", "split_condition": 1.42192304, "yes": 3, "no": 4, "missing": 4, "children": [{"nodeid": 3, "leaf": 0.00403428311}, {"nodeid": 4, "leaf": 0.0483110845}]}]}, {"nodeid": 0, "depth": 0, "split": "f0", "split_condition": 0.855770767, "yes": 1, "no": 2, "missing": 2, "children": [{"nodeid": 1, "leaf": -0.047515247}, {"nodeid": 2, "depth": 1, "split": "f0", "split_condition": 1.42192304, "yes": 3, "no": 4, "missing": 4, "children": [{"nodeid": 3, "leaf": 0.00411425112}, {"nodeid": 4, "leaf": 0.0481266417}]}]}, {"nodeid": 0, "depth": 0, "split": "f6", "split_condition": -0.826387525, "yes": 1, "no": 2, "missing": 2, "children": [{"nodeid": 1, "leaf": 0.0468069203}, {"nodeid": 2, "leaf": -0.0475341491}]}, {"nodeid": 0, "depth": 0, "split": "f0", "split_condition": 0.855770767, "yes": 1, "no": 2, "missing": 2, "children": [{"nodeid": 1, "leaf": -0.0472663902}, {"nodeid": 2, "depth": 1, "split": "f0", "split_condition": 1.42192304, "yes": 3, "no": 4, "missing": 4, "children": [{"nodeid": 3, "leaf": 0.00399696548}, {"nodeid": 4, "leaf": 0.0478350185}]}]}, {"nodeid": 0, "depth": 0, "split": "f5", "split_condition": -0.353398383, "yes": 1, "no": 2, "missing": 2, "children": [{"nodeid": 1, "leaf": 0.0468213633}, {"nodeid": 2, "leaf": -0.0473027863}]}, {"nodeid": 0, "depth": 0, "split": "f0", "split_condition": 0.855770767, "yes": 1, "no": 2, "missing": 2, "children": [{"nodeid": 1, "leaf": -0.0470390394}, {"nodeid": 2, "depth": 1, "split": "f0", "split_condition": 1.42192304, "yes": 3, "no": 4, "missing": 4, "children": [{"nodeid": 3, "leaf": 0.00379083189}, {"nodeid": 4, "leaf": 0.0474619865}]}]}, {"nodeid": 0, "depth": 0, "split": "f0", "split_condition": 0.855770767, "yes": 1, "no": 2, "missing": 2, "children": [{"nodeid": 1, "leaf": -0.0468865298}, {"nodeid": 2, "depth": 1, "split": "f0", "split_condition": 1.42192304, "yes": 3, "no": 4, "missing": 4, "children": [{"nodeid": 3, "leaf": 0.0023058455}, {"nodeid": 4, "leaf": 0.0472800992}]}]}, {"nodeid": 0, "depth": 0, "split": "f0", "split_condition": 0.855770767, "yes": 1, "no": 2, "missing": 2, "children": [{"nodeid": 1, "leaf": -0.0467602238}, {"nodeid": 2, "depth": 1, "split": "f5", "split_condition": -0.359211773, "yes": 3, "no": 4, "missing": 4, "children": [{"nodeid": 3, "leaf": 0.0471200012}, {"nodeid": 4, "leaf": 0.00248028664}]}]}, {"nodeid": 0, "depth": 0, "split": "f0", "split_condition": 1.42192304, "yes": 1, "no": 2, "missing": 2, "children": [{"nodeid": 1, "depth": 1, "split": "f5", "split_condition": -0.346096665, "yes": 3, "no": 4, "missing": 4, "children": [{"nodeid": 3, "leaf": 0.00238344865}, {"nodeid": 4, "leaf": -0.046611689}]}, {"nodeid": 2, "leaf": 0.0470401682}]}, {"nodeid": 0, "depth": 0, "split": "f0", "split_condition": 0.855770767, "yes": 1, "no": 2, "missing": 2, "children": [{"nodeid": 1, "leaf": -0.046475824}, {"nodeid": 2, "depth": 1, "split": "f0", "split_condition": 1.42192304, "yes": 3, "no": 4, "missing": 4, "children": [{"nodeid": 3, "leaf": 0.00193431566}, {"nodeid": 4, "leaf": 0.0469255187}]}]}, {"nodeid": 0, "depth": 0, "split": "f5", "split_condition": -0.353398383, "yes": 1, "no": 2, "missing": 2, "children": [{"nodeid": 1, "leaf": 0.0456827171}, {"nodeid": 2, "depth": 1, "split": "f4", "split_condition": 2.73571754, "yes": 3, "no": 4, "missing": 4, "children": [{"nodeid": 3, "leaf": -0.0462765582}, {"nodeid": 4, "leaf": -0.00310031069}]}]}, {"nodeid": 0, "depth": 0, "split": "f6", "split_condition": -0.826387525, "yes": 1, "no": 2, "missing": 2, "children": [{"nodeid": 1, "leaf": 0.0449958853}, {"nodeid": 2, "leaf": -0.0463591181}]}, {"nodeid": 0, "depth": 0, "split": "f0", "split_condition": 0.855770767, "yes": 1, "no": 2, "missing": 2, "children": [{"nodeid": 1, "leaf": -0.0459583886}, {"nodeid": 2, "depth": 1, "split": "f4", "split_condition": -0.0821368098, "yes": 3, "no": 4, "missing": 4, "children": [{"nodeid": 3, "leaf": 0.0460333861}, {"nodeid": 4, "leaf": 0.00893992744}]}]}, {"nodeid": 0, "depth": 0, "split": "f0", "split_condition": 0.855770767, "yes": 1, "no": 2, "missing": 2, "children": [{"nodeid": 1, "leaf": -0.045776628}, {"nodeid": 2, "depth": 1, "split": "f5", "split_condition": -0.359211773, "yes": 3, "no": 4, "missing": 4, "children": [{"nodeid": 3, "leaf": 0.046060469}, {"nodeid": 4, "leaf": 0.002730184}]}]}, {"nodeid": 0, "depth": 0, "split": "f5", "split_condition": -0.353398383, "yes": 1, "no": 2, "missing": 2, "children": [{"nodeid": 1, "leaf": 0.0448259525}, {"nodeid": 2, "depth": 1, "split": "f4", "split_condition": 2.21894813, "yes": 3, "no": 4, "missing": 4, "children": [{"nodeid": 3, "leaf": -0.0455372892}, {"nodeid": 4, "leaf": -0.0029911499}]}]}, {"nodeid": 0, "depth": 0, "split": "f5", "split_condition": -0.359211773, "yes": 1, "no": 2, "missing": 2, "children": [{"nodeid": 1, "leaf": 0.0453961194}, {"nodeid": 2, "depth": 1, "split": "f2", "split_condition": 0.0836295635, "yes": 3, "no": 4, "missing": 4, "children": [{"nodeid": 3, "leaf": -0.0444971025}, {"nodeid": 4, "leaf": -0.000724141719}]}]}, {"nodeid": 0, "depth": 0, "split": "f0", "split_condition": 0.855770767, "yes": 1, "no": 2, "missing": 2, "children": [{"nodeid": 1, "leaf": -0.0452569686}, {"nodeid": 2, "depth": 1, "split": "f0", "split_condition": 1.63721347, "yes": 3, "no": 4, "missing": 4, "children": [{"nodeid": 3, "leaf": 0.00659930706}, {"nodeid": 4, "leaf": 0.0459419042}]}]}, {"nodeid": 0, "depth": 0, "split": "f5", "split_condition": -0.359211773, "yes": 1, "no": 2, "missing": 2, "children": [{"nodeid": 1, "leaf": 0.045225244}, {"nodeid": 2, "leaf": -0.0443048291}]}, {"nodeid": 0, "depth": 0, "split": "f0", "split_condition": 0.855770767, "yes": 1, "no": 2, "missing": 2, "children": [{"nodeid": 1, "leaf": -0.044852484}, {"nodeid": 2, "depth": 1, "split": "f0", "split_condition": 1.63721347, "yes": 3, "no": 4, "missing": 4, "children": [{"nodeid": 3, "leaf": 0.00700120768}, {"nodeid": 4, "leaf": 0.0452233106}]}]}, {"nodeid": 0, "depth": 0, "split": "f0", "split_condition": 1.42192304, "yes": 1, "no": 2, "missing": 2, "children": [{"nodeid": 1, "depth": 1, "split": "f6", "split_condition": -0.603152812, "yes": 3, "no": 4, "missing": 4, "children": [{"nodeid": 3, "leaf": -0.0103164576}, {"nodeid": 4, "leaf": -0.0445045196}]}, {"nodeid": 2, "leaf": 0.0445998684}]}, {"nodeid": 0, "depth": 0, "split": "f0", "split_condition": 1.42192304, "yes": 1, "no": 2, "missing": 2, "children": [{"nodeid": 1, "depth": 1, "split": "f0", "split_condition": 0.420008272, "yes": 3, "no": 4, "missing": 4, "children": [{"nodeid": 3, "leaf": -0.0442363173}, {"nodeid": 4, "leaf": -0.0118062459}]}, {"nodeid": 2, "leaf": 0.0438846238}]}, {"nodeid": 0, "depth": 0, "split": "f0", "split_condition": 1.08503163, "yes": 1, "no": 2, "missing": 2, "children": [{"nodeid": 1, "leaf": -0.044270847}, {"nodeid": 2, "depth": 1, "split": "f0", "split_condition": 1.71477473, "yes": 3, "no": 4, "missing": 4, "children": [{"nodeid": 3, "leaf": 0.00789145194}, {"nodeid": 4, "leaf": 0.0446015224}]}]}, {"nodeid": 0, "depth": 0, "split": "f0", "split_condition": 0.855770767, "yes": 1, "no": 2, "missing": 2, "children": [{"nodeid": 1, "leaf": -0.0439848229}, {"nodeid": 2, "depth": 1, "split": "f4", "split_condition": -0.0605178773, "yes": 3, "no": 4, "missing": 4, "children": [{"nodeid": 3, "leaf": 0.0438646786}, {"nodeid": 4, "leaf": 0.00452904124}]}]}, {"nodeid": 0, "depth": 0, "split": "f6", "split_condition": -0.937329888, "yes": 1, "no": 2, "missing": 2, "children": [{"nodeid": 1, "leaf": 0.0439377241}, {"nodeid": 2, "depth": 1, "split": "f3", "split_condition": 1.20206392, "yes": 3, "no": 4, "missing": 4, "children": [{"nodeid": 3, "leaf": -0.0434880964}, {"nodeid": 4, "leaf": 0.000514844491}]}]}, {"nodeid": 0, "depth": 0, "split": "f0", "split_condition": 0.855770767, "yes": 1, "no": 2, "missing": 2, "children": [{"nodeid": 1, "leaf": -0.0434903689}, {"nodeid": 2, "depth": 1, "split": "f6", "split_condition": -0.938799679, "yes": 3, "no": 4, "missing": 4, "children": [{"nodeid": 3, "leaf": 0.0434554666}, {"nodeid": 4, "leaf": 0.00582159264}]}]}, {"nodeid": 0, "depth": 0, "split": "f5", "split_condition": -0.353398383, "yes": 1, "no": 2, "missing": 2, "children": [{"nodeid": 1, "leaf": 0.042302113}, {"nodeid": 2, "leaf": -0.0438787118}]}, {"nodeid": 0, "depth": 0, "split": "f0", "split_condition": 0.855770767, "yes": 1, "no": 2, "missing": 2, "children": [{"nodeid": 1, "leaf": -0.0430117957}, {"nodeid": 2, "depth": 1, "split": "f0", "split_condition": 1.63721347, "yes": 3, "no": 4, "missing": 4, "children": [{"nodeid": 3, "leaf": 0.00416022539}, {"nodeid": 4, "leaf": 0.0433307029}]}]}, {"nodeid": 0, "depth": 0, "split": "f0", "split_condition": 1.42192304, "yes": 1, "no": 2, "missing": 2, "children": [{"nodeid": 1, "leaf": -0.0402014181}, {"nodeid": 2, "leaf": 0.0418857001}]}, {"nodeid": 0, "depth": 0, "split": "f0", "split_condition": 0.855770767, "yes": 1, "no": 2, "missing": 2, "children": [{"nodeid": 1, "leaf": -0.0425241627}, {"nodeid": 2, "depth": 1, "split": "f0", "split_condition": 1.63721347, "yes": 3, "no": 4, "missing": 4, "children": [{"nodeid": 3, "leaf": 0.00423909398}, {"nodeid": 4, "leaf": 0.0438509248}]}]}, {"nodeid": 0, "depth": 0, "split": "f3", "split_condition": 1.15924656, "yes": 1, "no": 2, "missing": 2, "children": [{"nodeid": 1, "leaf": -0.0421531461}, {"nodeid": 2, "depth": 1, "split": "f6", "split_condition": -0.937329888, "yes": 3, "no": 4, "missing": 4, "children": [{"nodeid": 3, "leaf": 0.0424707532}, {"nodeid": 4, "leaf": 0.00120639382}]}]}, {"nodeid": 0, "depth": 0, "split": "f6", "split_condition": -0.826387525, "yes": 1, "no": 2, "missing": 2, "children": [{"nodeid": 1, "leaf": 0.0409555882}, {"nodeid": 2, "leaf": -0.0427848808}]}, {"nodeid": 0, "depth": 0, "split": "f0", "split_condition": 1.42192304, "yes": 1, "no": 2, "missing": 2, "children": [{"nodeid": 1, "leaf": -0.038800966}, {"nodeid": 2, "leaf": 0.0414562151}]}, {"nodeid": 0, "depth": 0, "split": "f0", "split_condition": 0.855770767, "yes": 1, "no": 2, "missing": 2, "children": [{"nodeid": 1, "leaf": -0.0414510667}, {"nodeid": 2, "depth": 1, "split": "f0", "split_condition": 1.78804898, "yes": 3, "no": 4, "missing": 4, "children": [{"nodeid": 3, "leaf": 0.00695902947}, {"nodeid": 4, "leaf": 0.0421864986}]}]}, {"nodeid": 0, "depth": 0, "split": "f0", "split_condition": 0.855770767, "yes": 1, "no": 2, "missing": 2, "children": [{"nodeid": 1, "leaf": -0.041072797}, {"nodeid": 2, "depth": 1, "split": "f0", "split_condition": 1.71477473, "yes": 3, "no": 4, "missing": 4, "children": [{"nodeid": 3, "leaf": 0.00512198824}, {"nodeid": 4, "leaf": 0.0426044874}]}]}, {"nodeid": 0, "depth": 0, "split": "f0", "split_condition": 0.855770767, "yes": 1, "no": 2, "missing": 2, "children": [{"nodeid": 1, "leaf": -0.0407604985}, {"nodeid": 2, "depth": 1, "split": "f6", "split_condition": -0.938799679, "yes": 3, "no": 4, "missing": 4, "children": [{"nodeid": 3, "leaf": 0.0408147834}, {"nodeid": 4, "leaf": 0.00484493235}]}]}, {"nodeid": 0, "depth": 0, "split": "f5", "split_condition": -0.353398383, "yes": 1, "no": 2, "missing": 2, "children": [{"nodeid": 1, "leaf": 0.0396587215}, {"nodeid": 2, "leaf": -0.0413401537}]}, {"nodeid": 0, "depth": 0, "split": "f0", "split_condition": 0.855770767, "yes": 1, "no": 2, "missing": 2, "children": [{"nodeid": 1, "leaf": -0.0401373766}, {"nodeid": 2, "depth": 1, "split": "f5", "split_condition": -0.359334618, "yes": 3, "no": 4, "missing": 4, "children": [{"nodeid": 3, "leaf": 0.0404043384}, {"nodeid": 4, "leaf": 0.00505118025}]}]}, {"nodeid": 0, "depth": 0, "split": "f0", "split_condition": 0.855770767, "yes": 1, "no": 2, "missing": 2, "children": [{"nodeid": 1, "leaf": -0.0398790203}, {"nodeid": 2, "depth": 1, "split": "f6", "split_condition": -0.938799679, "yes": 3, "no": 4, "missing": 4, "children": [{"nodeid": 3, "leaf": 0.0398667641}, {"nodeid": 4, "leaf": 0.00453814026}]}]}, {"nodeid": 0, "depth": 0, "split": "f0", "split_condition": 0.855770767, "yes": 1, "no": 2, "missing": 2, "children": [{"nodeid": 1, "leaf": -0.0395093821}, {"nodeid": 2, "depth": 1, "split": "f4", "split_condition": -0.110073552, "yes": 3, "no": 4, "missing": 4, "children": [{"nodeid": 3, "leaf": 0.0393069498}, {"nodeid": 4, "leaf": 0.00339354458}]}]}, {"nodeid": 0, "depth": 0, "split": "f0", "split_condition": 1.42192304, "yes": 1, "no": 2, "missing": 2, "children": [{"nodeid": 1, "depth": 1, "split": "f7", "split_condition": -0.278051823, "yes": 3, "no": 4, "missing": 4, "children": [{"nodeid": 3, "leaf": -0.010530103}, {"nodeid": 4, "leaf": -0.038233567}]}, {"nodeid": 2, "leaf": 0.0378774591}]}, {"nodeid": 0, "depth": 0, "split": "f0", "split_condition": 1.42192304, "yes": 1, "no": 2, "missing": 2, "children": [{"nodeid": 1, "leaf": -0.0366640799}, {"nodeid": 2, "leaf": 0.0373489074}]}, {"nodeid": 0, "depth": 0, "split": "f0", "split_condition": 1.42192304, "yes": 1, "no": 2, "missing": 2, "children": [{"nodeid": 1, "leaf": -0.0357861817}, {"nodeid": 2, "leaf": 0.0358091295}]}, {"nodeid": 0, "depth": 0, "split": "f6", "split_condition": -0.826387525, "yes": 1, "no": 2, "missing": 2, "children": [{"nodeid": 1, "leaf": 0.0378257446}, {"nodeid": 2, "depth": 1, "split": "f5", "split_condition": 0.432103723, "yes": 3, "no": 4, "missing": 4, "children": [{"nodeid": 3, "leaf": -0.0378652215}, {"nodeid": 4, "leaf": -0.00494693546}]}]}, {"nodeid": 0, "depth": 0, "split": "f3", "split_condition": 1.15924656, "yes": 1, "no": 2, "missing": 2, "children": [{"nodeid": 1, "leaf": -0.0381256156}, {"nodeid": 2, "depth": 1, "split": "f6", "split_condition": -0.939488292, "yes": 3, "no": 4, "missing": 4, "children": [{"nodeid": 3, "leaf": 0.0377618372}, {"nodeid": 4, "leaf": 0.00656211609}]}]}, {"nodeid": 0, "depth": 0, "split": "f0", "split_condition": 1.08503163, "yes": 1, "no": 2, "missing": 2, "children": [{"nodeid": 1, "leaf": -0.0379268453}, {"nodeid": 2, "depth": 1, "split": "f0", "split_condition": 1.90114212, "yes": 3, "no": 4, "missing": 4, "children": [{"nodeid": 3, "leaf": 0.00813290011}, {"nodeid": 4, "leaf": 0.0401974283}]}]}, {"nodeid": 0, "depth": 0, "split": "f3", "split_condition": 1.15924656, "yes": 1, "no": 2, "missing": 2, "children": [{"nodeid": 1, "leaf": -0.0375075303}, {"nodeid": 2, "depth": 1, "split": "f0", "split_condition": 1.78804898, "yes": 3, "no": 4, "missing": 4, "children": [{"nodeid": 3, "leaf": 0.00338120502}, {"nodeid": 4, "leaf": 0.0380244255}]}]}, {"nodeid": 0, "depth": 0, "split": "f0", "split_condition": 0.855770767, "yes": 1, "no": 2, "missing": 2, "children": [{"nodeid": 1, "leaf": -0.0369998664}, {"nodeid": 2, "depth": 1, "split": "f0", "split_condition": 1.90114212, "yes": 3, "no": 4, "missing": 4, "children": [{"nodeid": 3, "leaf": 0.00865873601}, {"nodeid": 4, "leaf": 0.0392181054}]}]}, {"nodeid": 0, "depth": 0, "split": "f5", "split_condition": -0.353398383, "yes": 1, "no": 2, "missing": 2, "children": [{"nodeid": 1, "leaf": 0.0364057794}, {"nodeid": 2, "depth": 1, "split": "f4", "split_condition": 0.268809259, "yes": 3, "no": 4, "missing": 4, "children": [{"nodeid": 3, "leaf": -0.0358727835}, {"nodeid": 4, "leaf": -0.00576559082}]}]}, {"nodeid": 0, "depth": 0, "split": "f5", "split_condition": -0.353398383, "yes": 1, "no": 2, "missing": 2, "children": [{"nodeid": 1, "leaf": 0.0358491056}, {"nodeid": 2, "leaf": -0.0381695069}]}, {"nodeid": 0, "depth": 0, "split": "f0", "split_condition": 1.08503163, "yes": 1, "no": 2, "missing": 2, "children": [{"nodeid": 1, "leaf": -0.0362304412}, {"nodeid": 2, "depth": 1, "split": "f0", "split_condition": 2.01407981, "yes": 3, "no": 4, "missing": 4, "children": [{"nodeid": 3, "leaf": 0.00983218476}, {"nodeid": 4, "leaf": 0.0349241421}]}]}, {"nodeid": 0, "depth": 0, "split": "f3", "split_condition": 1.15924656, "yes": 1, "no": 2, "missing": 2, "children": [{"nodeid": 1, "leaf": -0.035832759}, {"nodeid": 2, "depth": 1, "split": "f0", "split_condition": 1.90114212, "yes": 3, "no": 4, "missing": 4, "children": [{"nodeid": 3, "leaf": 0.00607833872}, {"nodeid": 4, "leaf": 0.0387506336}]}]}, {"nodeid": 0, "depth": 0, "split": "f5", "split_condition": -0.359211773, "yes": 1, "no": 2, "missing": 2, "children": [{"nodeid": 1, "leaf": 0.0357436836}, {"nodeid": 2, "depth": 1, "split": "f0", "split_condition": 0.273475707, "yes": 3, "no": 4, "missing": 4, "children": [{"nodeid": 3, "leaf": -0.0345850773}, {"nodeid": 4, "leaf": -0.0039283284}]}]}, {"nodeid": 0, "depth": 0, "split": "f3", "split_condition": 1.15924656, "yes": 1, "no": 2, "missing": 2, "children": [{"nodeid": 1, "leaf": -0.0349928811}, {"nodeid": 2, "depth": 1, "split": "f0", "split_condition": 1.83929324, "yes": 3, "no": 4, "missing": 4, "children": [{"nodeid": 3, "leaf": 0.00507490803}, {"nodeid": 4, "leaf": 0.0354152732}]}]}, {"nodeid": 0, "depth": 0, "split": "f3", "split_condition": 1.15924656, "yes": 1, "no": 2, "missing": 2, "children": [{"nodeid": 1, "leaf": -0.0346715301}, {"nodeid": 2, "depth": 1, "split": "f0", "split_condition": 1.90114212, "yes": 3, "no": 4, "missing": 4, "children": [{"nodeid": 3, "leaf": 0.00810086634}, {"nodeid": 4, "leaf": 0.0343070999}]}]}, {"nodeid": 0, "depth": 0, "split": "f0", "split_condition": 1.08503163, "yes": 1, "no": 2, "missing": 2, "children": [{"nodeid": 1, "leaf": -0.0346172415}, {"nodeid": 2, "leaf": 0.0291244444}]}, {"nodeid": 0, "depth": 0, "split": "f5", "split_condition": -0.353398383, "yes": 1, "no": 2, "missing": 2, "children": [{"nodeid": 1, "leaf": 0.0337895267}, {"nodeid": 2, "depth": 1, "split": "f2", "split_condition": 0.0229692552, "yes": 3, "no": 4, "missing": 4, "children": [{"nodeid": 3, "leaf": -0.0328747965}, {"nodeid": 4, "leaf": -0.00658763805}]}]}, {"nodeid": 0, "depth": 0, "split": "f3", "split_condition": 1.15924656, "yes": 1, "no": 2, "missing": 2, "children": [{"nodeid": 1, "leaf": -0.0338154323}, {"nodeid": 2, "leaf": 0.0292167217}]}, {"nodeid": 0, "depth": 0, "split": "f6", "split_condition": -0.826387525, "yes": 1, "no": 2, "missing": 2, "children": [{"nodeid": 1, "leaf": 0.0331617109}, {"nodeid": 2, "leaf": -0.0360995755}]}, {"nodeid": 0, "depth": 0, "split": "f3", "split_condition": 1.15924656, "yes": 1, "no": 2, "missing": 2, "children": [{"nodeid": 1, "leaf": -0.0331027918}, {"nodeid": 2, "depth": 1, "split": "f0", "split_condition": 2.01407981, "yes": 3, "no": 4, "missing": 4, "children": [{"nodeid": 3, "leaf": 0.00736440439}, {"nodeid": 4, "leaf": 0.0318229906}]}]}, {"nodeid": 0, "depth": 0, "split": "f5", "split_condition": -0.359211773, "yes": 1, "no": 2, "missing": 2, "children": [{"nodeid": 1, "leaf": 0.0335469805}, {"nodeid": 2, "depth": 1, "split": "f6", "split_condition": -0.298313439, "yes": 3, "no": 4, "missing": 4, "children": [{"nodeid": 3, "leaf": -0.0042100423}, {"nodeid": 4, "leaf": -0.0319614261}]}]}, {"nodeid": 0, "depth": 0, "split": "f5", "split_condition": -0.353398383, "yes": 1, "no": 2, "missing": 2, "children": [{"nodeid": 1, "leaf": 0.0319995172}, {"nodeid": 2, "leaf": -0.0347953998}]}, {"nodeid": 0, "depth": 0, "split": "f0", "split_condition": 0.855770767, "yes": 1, "no": 2, "missing": 2, "children": [{"nodeid": 1, "leaf": -0.0319717489}, {"nodeid": 2, "depth": 1, "split": "f4", "split_condition": -0.214967206, "yes": 3, "no": 4, "missing": 4, "children": [{"nodeid": 3, "leaf": 0.0310148057}, {"nodeid": 4, "leaf": 0.00667739799}]}]}, {"nodeid": 0, "depth": 0, "split": "f3", "split_condition": 1.15924656, "yes": 1, "no": 2, "missing": 2, "children": [{"nodeid": 1, "leaf": -0.0316179171}, {"nodeid": 2, "depth": 1, "split": "f5", "split_condition": -0.359456688, "yes": 3, "no": 4, "missing": 4, "children": [{"nodeid": 3, "leaf": 0.0296003465}, {"nodeid": 4, "leaf": 0.00716385944}]}]}, {"nodeid": 0, "depth": 0, "split": "f3", "split_condition": 1.15924656, "yes": 1, "no": 2, "missing": 2, "children": [{"nodeid": 1, "leaf": -0.0313131437}, {"nodeid": 2, "leaf": 0.0285598543}]}, {"nodeid": 0, "depth": 0, "split": "f0", "split_condition": 1.63721347, "yes": 1, "no": 2, "missing": 2, "children": [{"nodeid": 1, "leaf": -0.0258837342}, {"nodeid": 2, "leaf": 0.029874498}]}, {"nodeid": 0, "depth": 0, "split": "f6", "split_condition": -0.826387525, "yes": 1, "no": 2, "missing": 2, "children": [{"nodeid": 1, "leaf": 0.0306654405}, {"nodeid": 2, "leaf": -0.0332143158}]}, {"nodeid": 0, "depth": 0, "split": "f0", "split_condition": 0.855770767, "yes": 1, "no": 2, "missing": 2, "children": [{"nodeid": 1, "leaf": -0.0303171482}, {"nodeid": 2, "leaf": 0.0250710733}]}, {"nodeid": 0, "depth": 0, "split": "f0", "split_condition": 1.63721347, "yes": 1, "no": 2, "missing": 2, "children": [{"nodeid": 1, "leaf": -0.0263590459}, {"nodeid": 2, "leaf": 0.0317794308}]}, {"nodeid": 0, "depth": 0, "split": "f3", "split_condition": 1.15924656, "yes": 1, "no": 2, "missing": 2, "children": [{"nodeid": 1, "leaf": -0.0297368448}, {"nodeid": 2, "leaf": 0.0242191646}]}, {"nodeid": 0, "depth": 0, "split": "f0", "split_condition": 0.855770767, "yes": 1, "no": 2, "missing": 2, "children": [{"nodeid": 1, "leaf": -0.0294057112}, {"nodeid": 2, "leaf": 0.0240830258}]}, {"nodeid": 0, "depth": 0, "split": "f6", "split_condition": -0.826387525, "yes": 1, "no": 2, "missing": 2, "children": [{"nodeid": 1, "leaf": 0.029356176}, {"nodeid": 2, "depth": 1, "split": "f6", "split_condition": -0.021907324, "yes": 3, "no": 4, "missing": 4, "children": [{"nodeid": 3, "leaf": -0.00690461695}, {"nodeid": 4, "leaf": -0.0266229399}]}]}, {"nodeid": 0, "depth": 0, "split": "f0", "split_condition": 1.42192304, "yes": 1, "no": 2, "missing": 2, "children": [{"nodeid": 1, "leaf": -0.0270113479}, {"nodeid": 2, "leaf": 0.026200965}]}, {"nodeid": 0, "depth": 0, "split": "f3", "split_condition": 1.15924656, "yes": 1, "no": 2, "missing": 2, "children": [{"nodeid": 1, "leaf": -0.0287823733}, {"nodeid": 2, "leaf": 0.0230210871}]}, {"nodeid": 0, "depth": 0, "split": "f6", "split_condition": -0.937329888, "yes": 1, "no": 2, "missing": 2, "children": [{"nodeid": 1, "leaf": 0.0279479567}, {"nodeid": 2, "leaf": -0.0318855457}]}, {"nodeid": 0, "depth": 0, "split": "f7", "split_condition": -0.435049385, "yes": 1, "no": 2, "missing": 2, "children": [{"nodeid": 1, "leaf": 0.0224521123}, {"nodeid": 2, "leaf": -0.0299996026}]}, {"nodeid": 0, "depth": 0, "split": "f7", "split_condition": -0.435049385, "yes": 1, "no": 2, "missing": 2, "children": [{"nodeid": 1, "leaf": 0.0231625941}, {"nodeid": 2, "leaf": -0.0294954237}]}, {"nodeid": 0, "depth": 0, "split": "f6", "split_condition": -0.303454041, "yes": 1, "no": 2, "missing": 2, "children": [{"nodeid": 1, "leaf": 0.0223511364}, {"nodeid": 2, "leaf": -0.0278270151}]}, {"nodeid": 0, "depth": 0, "split": "f0", "split_condition": 1.08503163, "yes": 1, "no": 2, "missing": 2, "children": [{"nodeid": 1, "leaf": -0.0275976062}, {"nodeid": 2, "leaf": 0.0228429195}]}, {"nodeid": 0, "depth": 0, "split": "f0", "split_condition": 0.855770767, "yes": 1, "no": 2, "missing": 2, "children": [{"nodeid": 1, "leaf": -0.026860306}, {"nodeid": 2, "leaf": 0.023401605}]}, {"nodeid": 0, "depth": 0, "split": "f6", "split_condition": -0.303454041, "yes": 1, "no": 2, "missing": 2, "children": [{"nodeid": 1, "leaf": 0.0219366159}, {"nodeid": 2, "leaf": -0.0273091178}]}, {"nodeid": 0, "depth": 0, "split": "f0", "split_condition": 1.63721347, "yes": 1, "no": 2, "missing": 2, "children": [{"nodeid": 1, "leaf": -0.0214962848}, {"nodeid": 2, "leaf": 0.0297351535}]}, {"nodeid": 0, "depth": 0, "split": "f0", "split_condition": 1.63721347, "yes": 1, "no": 2, "missing": 2, "children": [{"nodeid": 1, "leaf": -0.0235965103}, {"nodeid": 2, "leaf": 0.0242417511}]}, {"nodeid": 0, "depth": 0, "split": "f6", "split_condition": -0.303454041, "yes": 1, "no": 2, "missing": 2, "children": [{"nodeid": 1, "leaf": 0.0202377271}, {"nodeid": 2, "leaf": -0.0266645383}]}, {"nodeid": 0, "depth": 0, "split": "f0", "split_condition": 0.855770767, "yes": 1, "no": 2, "missing": 2, "children": [{"nodeid": 1, "leaf": -0.0256481804}, {"nodeid": 2, "leaf": 0.0206399094}]}, {"nodeid": 0, "depth": 0, "split": "f0", "split_condition": 1.42192304, "yes": 1, "no": 2, "missing": 2, "children": [{"nodeid": 1, "leaf": -0.0237417277}, {"nodeid": 2, "leaf": 0.0233564936}]}, {"nodeid": 0, "depth": 0, "split": "f6", "split_condition": -0.303454041, "yes": 1, "no": 2, "missing": 2, "children": [{"nodeid": 1, "leaf": 0.0205007531}, {"nodeid": 2, "leaf": -0.0257440116}]}, {"nodeid": 0, "depth": 0, "split": "f3", "split_condition": 1.15924656, "yes": 1, "no": 2, "missing": 2, "children": [{"nodeid": 1, "leaf": -0.025613457}, {"nodeid": 2, "leaf": 0.0202874746}]}, {"nodeid": 0, "depth": 0, "split": "f6", "split_condition": -0.826387525, "yes": 1, "no": 2, "missing": 2, "children": [{"nodeid": 1, "leaf": 0.0247024894}, {"nodeid": 2, "leaf": -0.0296487249}]}, {"nodeid": 0, "depth": 0, "split": "f3", "split_condition": 1.15924656, "yes": 1, "no": 2, "missing": 2, "children": [{"nodeid": 1, "leaf": -0.025130555}, {"nodeid": 2, "leaf": 0.0198977645}]}, {"nodeid": 0, "depth": 0, "split": "f0", "split_condition": 1.71477473, "yes": 1, "no": 2, "missing": 2, "children": [{"nodeid": 1, "leaf": -0.0189755894}, {"nodeid": 2, "leaf": 0.0276875738}]}, {"nodeid": 0, "depth": 0, "split": "f0", "split_condition": 1.63721347, "yes": 1, "no": 2, "missing": 2, "children": [{"nodeid": 1, "leaf": -0.0216942932}, {"nodeid": 2, "leaf": 0.0213224161}]}, {"nodeid": 0, "depth": 0, "split": "f6", "split_condition": -0.772881687, "yes": 1, "no": 2, "missing": 2, "children": [{"nodeid": 1, "leaf": 0.0236310195}, {"nodeid": 2, "leaf": -0.0278569739}]}, {"nodeid": 0, "depth": 0, "split": "f6", "split_condition": -0.654276788, "yes": 1, "no": 2, "missing": 2, "children": [{"nodeid": 1, "leaf": 0.0221117307}, {"nodeid": 2, "leaf": -0.016266441}]}, {"nodeid": 0, "depth": 0, "split": "f0", "split_condition": 1.63721347, "yes": 1, "no": 2, "missing": 2, "children": [{"nodeid": 1, "leaf": -0.0192345288}, {"nodeid": 2, "leaf": 0.0209012181}]}, {"nodeid": 0, "depth": 0, "split": "f0", "split_condition": 1.78804898, "yes": 1, "no": 2, "missing": 2, "children": [{"nodeid": 1, "leaf": -0.0171848964}, {"nodeid": 2, "leaf": 0.021223994}]}, {"nodeid": 0, "depth": 0, "split": "f5", "split_condition": -0.34261319, "yes": 1, "no": 2, "missing": 2, "children": [{"nodeid": 1, "leaf": 0.021610273}, {"nodeid": 2, "leaf": -0.0163961165}]}, {"nodeid": 0, "depth": 0, "split": "f0", "split_condition": 1.63721347, "yes": 1, "no": 2, "missing": 2, "children": [{"nodeid": 1, "leaf": -0.0174079835}, {"nodeid": 2, "leaf": 0.0203809664}]}, {"nodeid": 0, "depth": 0, "split": "f0", "split_condition": 1.78804898, "yes": 1, "no": 2, "missing": 2, "children": [{"nodeid": 1, "leaf": -0.0166262034}, {"nodeid": 2, "leaf": 0.0205191374}]}, {"nodeid": 0, "leaf": -0.00678391242}, {"nodeid": 0, "depth": 0, "split": "f0", "split_condition": 1.71477473, "yes": 1, "no": 2, "missing": 2, "children": [{"nodeid": 1, "leaf": -0.01643214}, {"nodeid": 2, "leaf": 0.0211387482}]}, {"nodeid": 0, "depth": 0, "split": "f5", "split_condition": -0.334428906, "yes": 1, "no": 2, "missing": 2, "children": [{"nodeid": 1, "leaf": 0.0186770596}, {"nodeid": 2, "leaf": -0.0141416807}]}, {"nodeid": 0, "leaf": -0.00476698158}, {"nodeid": 0, "leaf": -0.00273296866}, {"nodeid": 0, "depth": 0, "split": "f3", "split_condition": 1.19578445, "yes": 1, "no": 2, "missing": 2, "children": [{"nodeid": 1, "leaf": -0.0157203116}, {"nodeid": 2, "leaf": 0.019420797}]}, {"nodeid": 0, "depth": 0, "split": "f0", "split_condition": 1.42192304, "yes": 1, "no": 2, "missing": 2, "children": [{"nodeid": 1, "leaf": -0.0170972776}, {"nodeid": 2, "leaf": 0.0176087897}]}, {"nodeid": 0, "depth": 0, "split": "f0", "split_condition": 1.63721347, "yes": 1, "no": 2, "missing": 2, "children": [{"nodeid": 1, "leaf": -0.0156246945}, {"nodeid": 2, "leaf": 0.0185788684}]}, {"nodeid": 0, "depth": 0, "split": "f0", "split_condition": 1.71477473, "yes": 1, "no": 2, "missing": 2, "children": [{"nodeid": 1, "leaf": -0.0151834404}, {"nodeid": 2, "leaf": 0.0181326829}]}, {"nodeid": 0, "depth": 0, "split": "f0", "split_condition": 1.42192304, "yes": 1, "no": 2, "missing": 2, "children": [{"nodeid": 1, "leaf": -0.0161175188}, {"nodeid": 2, "leaf": 0.0166484248}]}, {"nodeid": 0, "depth": 0, "split": "f0", "split_condition": 1.42192304, "yes": 1, "no": 2, "missing": 2, "children": [{"nodeid": 1, "leaf": -0.0156183764}, {"nodeid": 2, "leaf": 0.0182342175}]}, {"nodeid": 0, "depth": 0, "split": "f5", "split_condition": -0.321584404, "yes": 1, "no": 2, "missing": 2, "children": [{"nodeid": 1, "leaf": 0.014803079}, {"nodeid": 2, "leaf": -0.011842723}]}], "threshold_bot": 0.5, "tier_review_min": 0.6, "tier_deny_min": 0.9}